svm_type c_svc
kernel_type rbf
gamma 0.5
nr_class 7
total_sv 185
rho -0.0202 -0.0118585 -0.00224042 -0.00153494 -0.00104475 -0.016361 0.00666714 -0.0251501 -0.00871098 0.00274587 -0.0751504 -0.00133944 0.0154039 0.00180101 -0.090138 -0.00477338 -0.0120897 0.00473809 -0.0881675 -0.127681 0.162428
label 1 2 3 4 5 6 7
nr_sv 24 27 38 17 36 33 10
SV
0 7.024067744732949 0 0 0 0 1:0.058823529 2:0.12941176 3:0.23529412 4:0.078431373 
0 8 0 0 0 0 1:0.058823529 2:0.12941176 3:0.23529412 4:0.078431373 
0 8 0 0 0 0 1:0.058823529 2:0.12941176 3:0.23529412 4:0.078431373 
0 8 0 0 0 0 1:0.058823529 2:0.12941176 3:0.23529412 4:0.078431373 
0 8 0 0 0 0 1:0.058823529 2:0.12941176 3:0.23529412 4:0.078431373 
0 8 0 0 0 0 1:0.058823529 2:0.12941176 3:0.23529412 4:0.078431373 
0 8 0 0 0 0 1:0.058823529 2:0.12941176 3:0.23529412 4:0.078431373 
0 8 0 0 0 0 1:0.058823529 2:0.12941176 3:0.23529412 4:0.078431373 
0 8 0 0 0 0 1:0.058823529 2:0.12941176 3:0.23529412 4:0.078431373 
0 8 0 0 0 0 1:0.058823529 2:0.12941176 3:0.23529412 4:0.078431373 
0 8 0 0 0 0 1:0.058823529 2:0.12941176 3:0.23529412 4:0.078431373 
0 8 0 0 0 0 1:0.058823529 2:0.12941176 3:0.23529412 4:0.078431373 
0 8 0 0 0 0 1:0.058823529 2:0.12941176 3:0.23921569 4:0.078431373 
0 8 0 0 0 0 1:0.058823529 2:0.12941176 3:0.23529412 4:0.078431373 
0 8 0 0 0 0 1:0.058823529 2:0.12941176 3:0.23921569 4:0.078431373 
8 8 3.233446380758763 8 2.895054050724027 2.608398575538847 1:0.062745098 2:0.12941176 3:0.23529412 4:0.078431373 
1.087639241789272 8 0 2.753982731632309 0 0 1:0.058823529 2:0.12941176 3:0.23921569 4:0.078431373 
8 8 8 8 8 8 1:0.062745098 2:0.12941176 3:0.23529412 4:0.078431373 
8 8 0 0 0 0 1:0.062745098 2:0.1254902 3:0.23137255 4:0.078431373 
8 0 0 0 0 0 1:0.062745098 2:0.1254902 3:0.23137255 4:0.074509804 
0 8 0 0 0 0 1:0.058823529 2:0.12941176 3:0.23529412 4:0.078431373 
0 8 0 0 0 0 1:0.058823529 2:0.12941176 3:0.23529412 4:0.078431373 
0 8 0 0 0 0 1:0.058823529 2:0.12941176 3:0.23529412 4:0.078431373 
8 0 0 0 0 0 1:0.062745098 2:0.1254902 3:0.23137255 4:0.074509804 
-8 8 0 0 0 0 1:0.23137255 2:0.12941176 3:0.24313725 4:0.2 
-8 8 0 0 0 0 1:0.23921569 2:0.1254902 3:0.24705882 4:0.21176471 
-0 8 0 0 0 0 1:0.23921569 2:0.1254902 3:0.24705882 4:0.21960784 
-8 8 0 0 0 0 1:0.23529412 2:0.1254902 3:0.24313725 4:0.20392157 
-8 8 0 0 0 0 1:0.23529412 2:0.1254902 3:0.25098039 4:0.21568627 
-0 8 0 0 0 0 1:0.23529412 2:0.1254902 3:0.25098039 4:0.21960784 
-0 8 0 8 0 0 1:0.23921569 2:0.1254902 3:0.24705882 4:0.22352941 
-0 8 0 0 0 0 1:0.23921569 2:0.12941176 3:0.23921569 4:0.21960784 
-8 8 0 0 0 0 1:0.23921569 2:0.1254902 3:0.24313725 4:0.20784314 
-1.087639241789272 8 0 7.841526561033564 0 0 1:0.23529412 2:0.1254902 3:0.25098039 4:0.21960784 
-0 8 0 8 8 4.107820454004519 1:0.23529412 2:0.1254902 3:0.25490196 4:0.22352941 
-0 8 0 8 0 0 1:0.23921569 2:0.1254902 3:0.24705882 4:0.22352941 
-0 8 0 0 0 0 1:0.24313725 2:0.1254902 3:0.23921569 4:0.21176471 
-0 8 0 8 0 0 1:0.23921569 2:0.1254902 3:0.24705882 4:0.22352941 
-0 8 0 8 7.677976535189499 0 1:0.23921569 2:0.1254902 3:0.24705882 4:0.22352941 
-0 0 0 0 8 0 1:0.24313725 2:0.1254902 3:0.23921569 4:0.22745098 
-0 0 8 0 0 7.390928278470312 1:0.29803922 2:0.12941176 3:0.25882353 4:0.21960784 
-0 0 0 8 0 0 1:0.25882353 2:0.1254902 3:0.25490196 4:0.22352941 
-0 0 8 0 0 8 1:0.29803922 2:0.12941176 3:0.25882353 4:0.21960784 
-0 0 8 0 0 0 1:0.29803922 2:0.12156863 3:0.25882353 4:0.22352941 
-0 0.4654609781756535 0 0 0 0 1:0.24313725 2:0.1254902 3:0.25098039 4:0.21960784 
-0 0 5.62336675888309 0 0 0 1:0.30588235 2:0.12156863 3:0.25098039 4:0.21960784 
-0 0 8 0 0 0 1:0.29803922 2:0.12156863 3:0.25882353 4:0.22352941 
-0 0 0 8 0 0 1:0.24705882 2:0.1254902 3:0.25098039 4:0.22352941 
-0 0 8 0 0 0 1:0.30980392 2:0.12941176 3:0.24313725 4:0.21960784 
-0 0 8 0 0 0 1:0.30980392 2:0.12941176 3:0.25098039 4:0.21960784 
-0 0 8 0 0 0 1:0.30196078 2:0.1254902 3:0.25882353 4:0.22352941 
-8 -0 0 0 0 0 1:0.13333333 2:0.16078431 3:0.26666667 4:0.1372549 
-8 -0 0 0 0 0 1:0.13333333 2:0.16078431 3:0.26666667 4:0.14117647 
-0 -8 0 0 0 0 1:0.14117647 2:0.16078431 3:0.26666667 4:0.14901961 
-0 -8 0 0 0 0 1:0.14117647 2:0.16078431 3:0.27058824 4:0.15294118 
-8 -0 0 0 0 0 1:0.13333333 2:0.16078431 3:0.26666667 4:0.1372549 
-8 -0 0 0 0 0 1:0.13333333 2:0.16078431 3:0.26666667 4:0.14117647 
-7.024067744732949 -0 0 0 0 0 1:0.13333333 2:0.16078431 3:0.27058824 4:0.14117647 
-0 -8 0 0 0 0 1:0.14117647 2:0.16078431 3:0.27058824 4:0.14901961 
-0 -8 0 1.424072387591254 0 0 1:0.14117647 2:0.16078431 3:0.27058824 4:0.15294118 
-8 -0 0 0 0 0 1:0.1372549 2:0.16078431 3:0.27058824 4:0.13333333 
-8 -0 0 0 0 0 1:0.13333333 2:0.16078431 3:0.26666667 4:0.1372549 
-8 -0 0 0 0 0 1:0.13333333 2:0.16078431 3:0.26666667 4:0.1372549 
-8 -0 0 0 0 0 1:0.13333333 2:0.16078431 3:0.26666667 4:0.14117647 
-0 -8 0 0 0 0 1:0.14117647 2:0.16078431 3:0.2745098 4:0.14901961 
-0 -8 0 8 0 0 1:0.14117647 2:0.16470588 3:0.27058824 4:0.15294118 
-8 -0 0 0 0 0 1:0.1372549 2:0.16078431 3:0.26666667 4:0.13333333 
-8 -0 0 0 0 0 1:0.13333333 2:0.16078431 3:0.26666667 4:0.1372549 
-8 -0 0 0 0 0 1:0.13333333 2:0.16078431 3:0.26666667 4:0.1372549 
-8 -0 0 0 0 0 1:0.13333333 2:0.16078431 3:0.26666667 4:0.14117647 
-0 -8 0 0 0 0 1:0.14117647 2:0.16078431 3:0.27843137 4:0.14901961 
-0 -8 8 8 8 8 1:0.14509804 2:0.16862745 3:0.2745098 4:0.15294118 
-8 -0 0 0 0 0 1:0.1372549 2:0.16078431 3:0.26666667 4:0.13333333 
-8 -0 0 0 0 0 1:0.13333333 2:0.16078431 3:0.26666667 4:0.1372549 
-8 -0 0 0 0 0 1:0.13333333 2:0.16078431 3:0.26666667 4:0.1372549 
-8 -0 0 0 0 0 1:0.13333333 2:0.16078431 3:0.27058824 4:0.14117647 
-0 -8 0 0 0 0 1:0.14117647 2:0.16078431 3:0.28235294 4:0.14901961 
-0 -8 8 8 8 8 1:0.14509804 2:0.16862745 3:0.27843137 4:0.15294118 
-8 -0 0 0 0 0 1:0.1372549 2:0.16078431 3:0.26666667 4:0.1372549 
-8 -0 0 0 0 0 1:0.13333333 2:0.16078431 3:0.27058824 4:0.14117647 
-0 -8 0 0 0 0 1:0.14117647 2:0.16078431 3:0.28235294 4:0.14901961 
-0 -8 4.280208303527998 8 2.117373467768517 0.4167015492856178 1:0.14117647 2:0.16078431 3:0.28235294 4:0.15294118 
-8 -0 0 0 0 0 1:0.13333333 2:0.16078431 3:0.27058824 4:0.14117647 
-0 -0.4654609781756535 0 8 0 0 1:0.14117647 2:0.16078431 3:0.28627451 4:0.14901961 
-8 -0 0 0 0 0 1:0.13333333 2:0.16078431 3:0.27058824 4:0.14117647 
-0 -8 0 0 0 0 1:0.14117647 2:0.16078431 3:0.27843137 4:0.14901961 
-0 -8 0 0 0 0 1:0.14509804 2:0.16078431 3:0.2745098 4:0.14901961 
-0 -8 0 0 0 0 1:0.14509804 2:0.16470588 3:0.27058824 4:0.14901961 
-8 -0 0 0 0 0 1:0.13333333 2:0.16862745 3:0.2627451 4:0.14117647 
-0 -0 -0 8 8 8 1:0.37254902 2:0.21568627 3:0.32156863 4:0.38823529 
-0 -0 -0 8 8 0 1:0.37254902 2:0.15686275 3:0.30980392 4:0.39215686 
-0 -0 -0 8 8 0 1:0.37254902 2:0.16078431 3:0.31372549 4:0.39607843 
-0 -0 -0 8 0.6408118806620441 8 1:0.38823529 2:0.19607843 3:0.32156863 4:0.39215686 
-0 -0 -0 8 8 8 1:0.36862745 2:0.16470588 3:0.31764706 4:0.39215686 
-0 -0 -0 0 0 8 1:0.4 2:0.19215686 3:0.31372549 4:0.39607843 
-0 -0 -0 3.613061302165518 0 0 1:0.38039216 2:0.16470588 3:0.31372549 4:0.38431373 
-8 -8 -8 8 0 0 1:0.37647059 2:0.15686275 3:0.30196078 4:0.36470588 
-0 -8 -0 0 0 0 1:0.38823529 2:0.15686275 3:0.30196078 4:0.36862745 
-0 -8 -0 0 0 0 1:0.39215686 2:0.15686275 3:0.30196078 4:0.36078431 
-0 -8 -0 8 0 0 1:0.38039216 2:0.15686275 3:0.30588235 4:0.36470588 
-0 -8 -0 0 0 0 1:0.38431373 2:0.16078431 3:0.30980392 4:0.36078431 
-0 -5.62336675888309 -0 0 0 0 1:0.38431373 2:0.16862745 3:0.31372549 4:0.36862745 
-0 -8 -4.280208303527998 8 0 0 1:0.37254902 2:0.16862745 3:0.30980392 4:0.37254902 
-3.233446380758763 -8 -8 8 0 2.629926477500204 1:0.36862745 2:0.16862745 3:0.30980392 4:0.37254902 
-0 -0 -0 0 8 0 1:0.38823529 2:0.16862745 3:0.30196078 4:0.43529412 
-0 -0 -0 0 8 0 1:0.38431373 2:0.17254902 3:0.30196078 4:0.43529412 
-2.753982731632309 -0 -8 -0 0 0 1:0.18823529 2:0.23921569 3:0.35294118 4:0.34117647 
-8 -7.242003260374044 -8 -0 8 0 1:0.2 2:0.20784314 3:0.33333333 4:0.35294118 
-0 -0 -3.119332061788898 -0 0 0 1:0.18039216 2:0.25098039 3:0.35294118 4:0.34117647 
-0 -0 -0 -0 7.009662243136036 0 1:0.20392157 2:0.21176471 3:0.3372549 4:0.35294118 
-0 -0 -0 -8 0 0 1:0.22745098 2:0.21960784 3:0.35294118 4:0.35294118 
-0 -0 -0 -0 8 0 1:0.21568627 2:0.21960784 3:0.35294118 4:0.35686275 
-0 -0 -0 -0 0 8 1:0.21960784 2:0.25882353 3:0.41960784 4:0.35294118 
-0 -0 -0 -0 0 8 1:0.21568627 2:0.25098039 3:0.40392157 4:0.35294118 
-8 -0 -8 -0 0 0 1:0.19215686 2:0.22352941 3:0.34117647 4:0.34509804 
-0 -0 -0 -0 8 0 1:0.20392157 2:0.25882353 3:0.35294118 4:0.35686275 
-0 -0 -0 -0 0 1.615180872190021 1:0.21960784 2:0.26666667 3:0.38039216 4:0.35686275 
-0 -0 -0 -0 8 8 1:0.21960784 2:0.2627451 3:0.38431373 4:0.36078431 
-0 -0 -0 -0 0 8 1:0.2 2:0.26666667 3:0.41960784 4:0.35294118 
-0 -0 -0 -0 0 8 1:0.20784314 2:0.25882353 3:0.40784314 4:0.35294118 
-0 -0 -0 -0 8 0 1:0.20784314 2:0.24705882 3:0.35686275 4:0.35686275 
-0 -0 -0 -0 0 8 1:0.21568627 2:0.2627451 3:0.38823529 4:0.36078431 
-0 -0 -0 -3.613061302165518 0 0 1:0.23529412 2:0.23529412 3:0.36862745 4:0.34901961 
-0 -0 -0 -0 8 0 1:0.21960784 2:0.23137255 3:0.37647059 4:0.36078431 
-0 -0 -0 -0 8 0 1:0.21568627 2:0.2627451 3:0.38039216 4:0.36078431 
-0 -0.5995233006595208 -0 -8 0 0 1:0.23137255 2:0.2 3:0.34901961 4:0.35294118 
-0 -0 -0 -8 0 0 1:0.23137255 2:0.2 3:0.35294118 4:0.35686275 
-0 -0 -0 -0 8 8 1:0.2 2:0.27058824 3:0.39607843 4:0.36078431 
-0 -0 -0 -0 8 0 1:0.18431373 2:0.26666667 3:0.38039216 4:0.35686275 
-0 -8 -0 -8 0 0 1:0.22745098 2:0.20784314 3:0.3372549 4:0.35294118 
-0 -8 -0 -8 8 0 1:0.23137255 2:0.20392157 3:0.33333333 4:0.35686275 
-0 -0 -0 -8 8 0 1:0.22745098 2:0.22745098 3:0.34509804 4:0.35686275 
-0 -0 -0 -0 8 0 1:0.18431373 2:0.27058824 3:0.39215686 4:0.36078431 
-0 -0 -0 -0 1.699802303494214 0 1:0.18431373 2:0.26666667 3:0.38431373 4:0.35686275 
-0 -0 -0 -0 8 0 1:0.17647059 2:0.26666667 3:0.37647059 4:0.35686275 
-0 -8 -0 -8 0 0 1:0.22352941 2:0.20392157 3:0.33333333 4:0.35294118 
-0 -8 -0 -8 8 0 1:0.22745098 2:0.20784314 3:0.32941176 4:0.35686275 
-0 -0 -0 -0 8 0 1:0.18823529 2:0.2627451 3:0.37647059 4:0.36078431 
-0 -0 -0 -0 8 0 1:0.2 2:0.25882353 3:0.36862745 4:0.35686275 
-0 -8 -8 -0 0 0 1:0.21176471 2:0.20784314 3:0.32941176 4:0.34901961 
-0 -8 -6.304740325802356 -0 0 0 1:0.21960784 2:0.20392157 3:0.33333333 4:0.34901961 
-0 -8 -0 -8 0 0 1:0.22352941 2:0.21176471 3:0.33333333 4:0.35294118 
-0 -0 -0 -0 -0 8 1:0.23529412 2:0.2745098 3:0.38039216 4:0.51764706 
-0 -0 -0 -0 -0 8 1:0.22745098 2:0.2745098 3:0.38431373 4:0.51372549 
-0 -0 -0 -0 -0 4.553696229839127 1:0.22745098 2:0.2745098 3:0.38039216 4:0.51764706 
-0 -0 -0 -0 -0 8 1:0.22745098 2:0.27843137 3:0.38823529 4:0.51764706 
-0 -0 -0 -0 -0 8 1:0.22352941 2:0.27843137 3:0.38823529 4:0.51372549 
-0 -0 -0 -0 -0 8 1:0.21960784 2:0.28235294 3:0.38823529 4:0.51764706 
-0 -0 -0 -0 -0 8 1:0.21568627 2:0.28235294 3:0.38823529 4:0.51372549 
-0 -0 -0 -8 -0 0 1:0.20784314 2:0.21960784 3:0.34117647 4:0.49019608 
-0 -0 -0 -8 -0 0 1:0.20784314 2:0.22352941 3:0.34117647 4:0.48627451 
-0 -0 -0 -8 -0 0 1:0.20784314 2:0.21568627 3:0.34901961 4:0.48627451 
-0 -0 -0 -8 -0 0 1:0.21176471 2:0.22352941 3:0.35294118 4:0.48235294 
-0 -0 -0 -8 -8 0 1:0.20392157 2:0.23529412 3:0.35294118 4:0.47843137 
-0 -0 -0 -0 -8 0 1:0.2 2:0.23921569 3:0.35294118 4:0.47843137 
-0 -0 -0 -0.6408118806620441 -0 0 1:0.20392157 2:0.23137255 3:0.34509804 4:0.49019608 
-0 -0 -0 -8 -0 0 1:0.20392157 2:0.22745098 3:0.35686275 4:0.48235294 
-0 -0 -0 -0 -8 0 1:0.2 2:0.23921569 3:0.35686275 4:0.47843137 
-0 -0 -0 -0 -8 0 1:0.19607843 2:0.24313725 3:0.35294118 4:0.47843137 
-0 -0 -0 -0 -8 0 1:0.19607843 2:0.23921569 3:0.35294118 4:0.47843137 
-0 -0 -0 -0 -8 0 1:0.19607843 2:0.23529412 3:0.35686275 4:0.47843137 
-0 -0 -0 -0 -8 0 1:0.2 2:0.24705882 3:0.34901961 4:0.47843137 
-0 -0 -0 -0 -8 0 1:0.19215686 2:0.23921569 3:0.34509804 4:0.4745098 
-0 -7.6779765351895 -0 -0 -8 0 1:0.19215686 2:0.23529412 3:0.34509804 4:0.4745098 
-0 -0 -0 -0 -0.70946454663025 0 1:0.19215686 2:0.25098039 3:0.35294118 4:0.47843137 
-0 -0 -0 -0 -8 0 1:0.19215686 2:0.24705882 3:0.35686275 4:0.47843137 
-0 -8 -8 -0 -8 0 1:0.18431373 2:0.23529412 3:0.3372549 4:0.4745098 
-0 -0 -0 -0 -8 0 1:0.19215686 2:0.23921569 3:0.34117647 4:0.4745098 
-0 -0 -0 -0 -8 0 1:0.18431373 2:0.25882353 3:0.36470588 4:0.4745098 
-0 -0 -0 -0 -8 0 1:0.18039216 2:0.24705882 3:0.35686275 4:0.47058824 
-0 -0 -8 -0 -8 0 1:0.18039216 2:0.24705882 3:0.34509804 4:0.47058824 
-0 -0 -0 -0 -8 0 1:0.19215686 2:0.24705882 3:0.34901961 4:0.4745098 
-2.895054050724027 -0 -0 -0 -0 0 1:0.16862745 2:0.22352941 3:0.33333333 4:0.48235294 
-8 -8 -2.117373467768517 -0 -0 0 1:0.17647059 2:0.22745098 3:0.33333333 4:0.47843137 
-0 -0 -0 -0 -8 0 1:0.19215686 2:0.23921569 3:0.34117647 4:0.4745098 
-2.608398575538847 -8 -8 -8 -8 -8 1:0.30588235 2:0.33333333 3:0.48627451 4:0.31764706 
-0 -0 -0 -2.629926477500204 -8 -0 1:0.32156863 2:0.35686275 3:0.50980392 4:0.3372549 
-0 -0 -0 -0 -3.049633354415781 -0 1:0.3254902 2:0.40392157 3:0.53333333 4:0.40392157 
-0 -3.498748732474831 -0.4167015492856178 -8 -8 -8 1:0.28627451 2:0.34901961 3:0.45490196 4:0.40392157 
-8 -8 -8 -8 -8 -8 1:0.23137255 2:0.29411765 3:0.39215686 4:0.40392157 
-0 -0 -0 -0 -8 -0 1:0.33333333 2:0.37647059 3:0.54509804 4:0.3372549 
-0 -0 -0 -8 -8 -8 1:0.26666667 2:0.34509804 3:0.45882353 4:0.43137255 
-0 -0 -0 -0 -6.56554751777424 -5.234318043931866 1:0.29411765 2:0.41176471 3:0.54117647 4:0.45098039 
-0 -0 -0 -0 -0 -7.319378185907262 1:0.28627451 2:0.42745098 3:0.6 4:0.55686275 
-0 -0 -0 -0 -0 -8 1:0.29803922 2:0.41176471 3:0.58823529 4:0.55686275 
